svm_type nu_svr
kernel_type rbf
gamma 1.0
nr_class 2
total_sv 6
rho -21.405247680785827
SV
1.0 1:19.89 2:19.1999999999999 3:19.7899999999999 4:18.89 5:17.1666666666667 6:6.43333333333333 7:17.1333333333333 8:18.1 9:17.0 
1.0 1:20.1333333333333 2:19.5666666666666 3:19.89 4:19.0 5:17.1 6:6.12333333333333 7:17.8233333333332 8:18.0666666666666 9:16.9633333333332 
-1.0 1:21.1 2:20.3566666666667 3:20.2899999999999 4:19.39 5:17.5666666666666 6:5.62333333333333 7:17.76 8:18.9633333333332 9:16.89 
-0.5 1:21.6 2:20.9633333333332 3:20.5 4:20.0966666666667 5:19.1583333333332 6:5.9 7:17.7899999999999 8:19.39 9:16.89 
-1.0 1:21.6 2:21.0 3:20.39 4:21.0333333333332 5:19.2899999999999 6:5.9 7:17.6999999999999 8:19.39 9:16.89 
0.5 1:21.39 2:20.7899999999999 3:20.23 4:20.6999999999999 5:19.1999999999999 6:5.58999999999999 7:17.6999999999999 8:19.39 9:16.89 
